<?xml version="1.0"?>
<opencv_storage>
<opencv_ml_svm>
  <format>3</format>
  <svmType>C_SVC</svmType>
  <kernel>
    <type>CHI2</type>
    <gamma>1.</gamma></kernel>
  <C>1.</C>
  <term_criteria><iterations>100</iterations></term_criteria>
  <var_count>3</var_count>
  <class_count>3</class_count>
  <class_labels type_id="opencv-matrix">
    <rows>3</rows>
    <cols>1</cols>
    <dt>i</dt>
    <data>
      0 1 2</data></class_labels>
  <sv_total>56</sv_total>
  <support_vectors>
    <_>
      1.11163509e+00 1.52056873e+00 1.41399994e+02</_>
    <_>
      2.52272725e+00 5.28528512e-01 7.23355532e+00</_>
    <_>
      1.14271772e+00 1.74968541e+00 1.38946136e+02</_>
    <_>
      1.16481066e+00 1.16224027e+00 1.24530205e+02</_>
    <_>
      1.17511523e+00 1.16472685e+00 1.20887665e+02</_>
    <_>
      1.18283582e+00 1.15370655e+00 1.19853241e+02</_>
    <_>
      1.18283582e+00 1.15370655e+00 1.19853241e+02</_>
    <_>
      1.08732164e+00 1.42446434e+00 1.29301727e+02</_>
    <_>
      1.17886186e+00 1.14069211e+00 123.</_>
    <_>
      1.08732164e+00 1.42446434e+00 1.29301727e+02</_>
    <_>
      1.17886186e+00 1.14069211e+00 123.</_>
    <_>
      1.11163509e+00 1.52056873e+00 1.41399994e+02</_>
    <_>
      2.52272725e+00 5.28528512e-01 7.23355532e+00</_>
    <_>
      1.14271772e+00 1.74968541e+00 1.38946136e+02</_>
    <_>
      1.18011057e+00 1.16937554e+00 1.24311295e+02</_>
    <_>
      1.20000005e+00 1.14352930e+00 1.20747665e+02</_>
    <_>
      1.18011057e+00 1.16937554e+00 1.24311295e+02</_>
    <_>
      1.20000005e+00 1.14352930e+00 1.20747665e+02</_>
    <_>
      1.19820237e+00 1.65918410e+00 1.47979431e+02</_>
    <_>
      1.18307102e+00 1.15968168e+00 1.23208092e+02</_>
    <_>
      1.12949634e+00 1.54442346e+00 1.40425064e+02</_>
    <_>
      1.18307102e+00 1.15968168e+00 1.23208092e+02</_>
    <_>
      1.12949634e+00 1.54442346e+00 1.40425064e+02</_>
    <_>
      1.16481066e+00 1.16224027e+00 1.24530205e+02</_>
    <_>
      1.17511523e+00 1.16472685e+00 1.20887665e+02</_>
    <_>
      4.17690468e+00 4.49502796e-01 3.94769058e+01</_>
    <_>
      5.20809507e+00 8.51227665e+00 1.71493195e+02</_>
    <_>
      4.22580671e+00 7.42900324e+00 1.65703339e+02</_>
    <_>
      3.48523521e+00 8.65292192e-01 4.74863281e+01</_>
    <_>
      4.87037945e+00 4.58929330e-01 3.91337090e+01</_>
    <_>
      3.70124269e+00 6.87218857e+00 1.68286331e+02</_>
    <_>
      5.27622795e+00 3.09767544e-01 3.17633896e+01</_>
    <_>
      4.41155005e+00 7.99194431e+00 1.79286362e+02</_>
    <_>
      1.03082204e+00 1.20335889e+00 1.30586365e+02</_>
    <_>
      1.00819671e+00 1.23754883e+00 122.</_>
    <_>
      1.03759396e+00 1.21091187e+00 133.</_>
    <_>
      1.03672314e+00 1.20426655e+00 1.11944618e+02</_>
    <_>
      1.03601706e+00 1.20974362e+00 1.30909241e+02</_>
    <_>
      1.03672314e+00 1.20426655e+00 1.11944618e+02</_>
    <_>
      1.03601706e+00 1.20974362e+00 1.30909241e+02</_>
    <_>
      1.04188490e+00 1.20550025e+00 1.31024918e+02</_>
    <_>
      1.00892854e+00 1.23854661e+00 112.</_>
    <_>
      1.04188490e+00 1.20550025e+00 1.31024918e+02</_>
    <_>
      1.03082204e+00 1.20335889e+00 1.30586365e+02</_>
    <_>
      1.05058098e+00 1.19384623e+00 1.07561905e+02</_>
    <_>
      1.03050840e+00 1.21875215e+00 1.31928009e+02</_>
    <_>
      1.05058098e+00 1.19384623e+00 1.07561905e+02</_>
    <_>
      1.03050840e+00 1.21875215e+00 1.31928009e+02</_>
    <_>
      1.02030945e+00 1.22765911e+00 1.21020546e+02</_>
    <_>
      1.02030945e+00 1.22765911e+00 1.21020546e+02</_>
    <_>
      1.03333342e+00 1.21459508e+00 1.20747665e+02</_>
    <_>
      1.03887677e+00 1.19900548e+00 1.12293991e+02</_>
    <_>
      1.03333342e+00 1.21459508e+00 1.20747665e+02</_>
    <_>
      1.03887677e+00 1.19900548e+00 1.12293991e+02</_>
    <_>
      1.00819671e+00 1.23754883e+00 122.</_>
    <_>
      1.03759396e+00 1.21091187e+00 133.</_></support_vectors>
  <decision_functions>
    <_>
      <sv_count>14</sv_count>
      <rho>6.5652233475437929e-02</rho>
      <alpha>
        9.4812865062550522e-01 9.2264260661292924e-02
        9.1613658361590899e-01 1.2722404883644525e-01
        1.1757266871667769e-01 9.1917352066853797e-01
        -9.3457497243665172e-02 -2.7665805203939769e-01
        -1.1761704958316317e-01 -8.0018663239185850e-01
        -2.5363033749168723e-01 -4.0751121031051346e-01
        -7.6788549814599760e-01 -4.0355345591808506e-01</alpha>
      <index>
        1 2 5 7 12 18 25 26 27 28 29 30 31 32</index></_>
    <_>
      <sv_count>44</sv_count>
      <rho>-4.4911914201045799e-01</rho>
      <alpha>
        1. 5.5088177272817973e-01 3.2437908445456426e-01 1. 1. 1. 1. 1.
        1. 1. 1. 2.5022808373817529e-01 5.5985397496187495e-01 1. 1. 1.
        1. 9.9734628106701884e-01 1. 8.5169963355806710e-01 1. 1. 1. -1.
        -1. -1. -1. -1. -1. -1. -1. -5.3438883050788022e-01 -1. -1. -1.
        -1. -1. -1. -1. -1. -1. -1. -1. -1.</alpha>
      <index>
        0 1 2 3 4 5 6 7 8 9 10 11 13 14 15 16 17 19 20 21 22 23 24 33 34
        35 36 37 38 39 40 41 42 43 45 47 48 49 50 51 52 53 54 55</index></_>
    <_>
      <sv_count>13</sv_count>
      <rho>-2.8018542394744250e-01</rho>
      <alpha>
        7.5773242516990649e-02 2.0151695143094298e-01
        1.0931603323310678e-01 6.1558081430028966e-01
        1.9207846812542356e-01 2.9562698725305547e-01
        5.9172739500678373e-01 3.2091405116571681e-01
        -9.9770777493127905e-01 -9.6665325048776962e-01
        -1.8382562319066456e-01 -1.1218281688203761e-01
        -1.4216447754055919e-01</alpha>
      <index>
        25 26 27 28 29 30 31 32 35 44 46 50 55</index></_></decision_functions></opencv_ml_svm>
</opencv_storage>
