<?xml version="1.0"?>
<opencv_storage>
<opencv_ml_svm>
  <format>3</format>
  <svmType>C_SVC</svmType>
  <kernel>
    <type>CHI2</type>
    <gamma>1.</gamma></kernel>
  <C>1.</C>
  <term_criteria><iterations>100</iterations></term_criteria>
  <var_count>3</var_count>
  <class_count>3</class_count>
  <class_labels type_id="opencv-matrix">
    <rows>3</rows>
    <cols>1</cols>
    <dt>i</dt>
    <data>
      0 1 2</data></class_labels>
  <sv_total>57</sv_total>
  <support_vectors>
    <_>
      1.08732176e+000 1.68409908e+000 1.40592575e+002</_>
    <_>
      1.08732176e+000 1.68409908e+000 1.40592575e+002</_>
    <_>
      1.18283582e+000 1.61415136e+000 1.41766708e+002</_>
    <_>
      1.18283582e+000 1.61415136e+000 1.41766708e+002</_>
    <_>
      1.16481066e+000 1.57690871e+000 1.45054108e+002</_>
    <_>
      1.17511523e+000 1.60836625e+000 1.42056931e+002</_>
    <_>
      1.20965970e+000 1.66152012e+000 1.49273727e+002</_>
    <_>
      1.17511523e+000 1.60836625e+000 1.42056931e+002</_>
    <_>
      1.12949634e+000 1.21058893e+000 1.24325378e+002</_>
    <_>
      1.12949634e+000 1.21058893e+000 1.24325378e+002</_>
    <_>
      1.19820237e+000 1.15567100e+000 1.23501198e+002</_>
    <_>
      1.13600004e+000 1.18058181e+000 125.</_>
    <_>
      1.19820237e+000 1.15567100e+000 1.23501198e+002</_>
    <_>
      1.13600004e+000 1.18058181e+000 125.</_>
    <_>
      1.15778697e+000 1.17721212e+000 1.24192726e+002</_>
    <_>
      1.15778697e+000 1.17721212e+000 1.24192726e+002</_>
    <_>
      1.11163509e+000 1.23049974e+000 1.27200005e+002</_>
    <_>
      1.16465616e+000 1.16731560e+000 1.21488838e+002</_>
    <_>
      1.11578965e+000 1.20870519e+000 1.27455864e+002</_>
    <_>
      2.52272725e+000 3.36363626e+000 1.82482872e+001</_>
    <_>
      1.14271784e+000 1.33992970e+000 1.21592697e+002</_>
    <_>
      1.11163509e+000 1.23049974e+000 1.27200005e+002</_>
    <_>
      1.16465616e+000 1.16731560e+000 1.21488838e+002</_>
    <_>
      1.11578965e+000 1.20870519e+000 1.27455864e+002</_>
    <_>
      2.52272725e+000 3.36363626e+000 1.82482872e+001</_>
    <_>
      1.14271784e+000 1.33992970e+000 1.21592697e+002</_>
    <_>
      4.17690468e+000 7.84226561e+000 1.64891281e+002</_>
    <_>
      5.20809507e+000 3.13825279e-001 3.29281998e+001</_>
    <_>
      3.48523521e+000 1.05105867e+001 1.65501022e+002</_>
    <_>
      5.49868488e+000 1.06681347e+001 1.87430435e+002</_>
    <_>
      4.87037945e+000 1.08860769e+001 1.90596008e+002</_>
    <_>
      3.70124245e+000 5.01648962e-001 4.54675217e+001</_>
    <_>
      5.27622795e+000 8.62348843e+000 1.67590881e+002</_>
    <_>
      1.03082192e+000 1.27868164e+000 1.34611282e+002</_>
    <_>
      1.03082192e+000 1.27868164e+000 1.34611282e+002</_>
    <_>
      1.03050840e+000 1.29425108e+000 1.35952927e+002</_>
    <_>
      1.03050840e+000 1.29425108e+000 1.35952927e+002</_>
    <_>
      1.02030945e+000 1.27803159e+000 1.23478409e+002</_>
    <_>
      1.02030945e+000 1.27803159e+000 1.23478409e+002</_>
    <_>
      1.03333330e+000 1.29691768e+000 1.24772591e+002</_>
    <_>
      1.03887677e+000 1.29404461e+000 1.16659622e+002</_>
    <_>
      1.03333330e+000 1.29691768e+000 1.24772591e+002</_>
    <_>
      1.03887677e+000 1.29404461e+000 1.16659622e+002</_>
    <_>
      1.01834857e+000 1.27164829e+000 111.</_>
    <_>
      1.00819671e+000 1.25791967e+000 123.</_>
    <_>
      1.03759396e+000 1.30366921e+000 138.</_>
    <_>
      1.03798878e+000 1.29209328e+000 1.15228256e+002</_>
    <_>
      1.00819671e+000 1.25791967e+000 123.</_>
    <_>
      1.03759396e+000 1.30366921e+000 138.</_>
    <_>
      1.03798878e+000 1.29209328e+000 1.15228256e+002</_>
    <_>
      1.03672314e+000 1.29433954e+000 1.16055580e+002</_>
    <_>
      1.03601706e+000 1.29845583e+000 1.35624207e+002</_>
    <_>
      1.03672314e+000 1.29433954e+000 1.16055580e+002</_>
    <_>
      1.03601706e+000 1.29845583e+000 1.35624207e+002</_>
    <_>
      1.04188490e+000 1.30859947e+000 1.36512878e+002</_>
    <_>
      1.04188490e+000 1.30859947e+000 1.36512878e+002</_>
    <_>
      1.02777779e+000 1.27930641e+000 111.</_></support_vectors>
  <decision_functions>
    <_>
      <sv_count>13</sv_count>
      <rho>1.3435702658595680e-001</rho>
      <alpha>
        1.6328150182768325e-001 9.5347268385300255e-001
        7.9892155877423976e-001 9.9539813080329798e-001
        2.5118412027233494e-001 1.3937669559215141e-001
        -3.8950788975643236e-001 -7.8761615072664926e-001
        -4.1828963734111319e-001 -4.7309264723934728e-002
        -7.0026986731722196e-001 -7.8698145847230039e-001
        -1.7166042278505872e-001</alpha>
      <index>
        0 6 17 19 20 24 26 27 28 29 30 31 32</index></_>
    <_>
      <sv_count>46</sv_count>
      <rho>-4.3118253297190506e-001</rho>
      <alpha>
        1. 1. 1. 1. 3.6381871415329797e-001 1. 1. 1. 1.
        6.7363818818606855e-002 1. 1. 1. 1. 1. 1. 1. 1.
        5.6881746702809499e-001 1. 1. 1. 1. 1. -1. -1. -1. -1. -1. -1.
        -1. -1. -1. -1. -1. -1. -1. -1. -1. -1. -1. -1. -1. -1. -1. -1.</alpha>
      <index>
        0 1 2 3 4 5 7 8 9 10 11 12 13 14 15 16 17 18 19 20 21 22 23 25
        33 34 35 36 37 38 39 40 41 42 44 45 46 47 48 49 50 51 52 53 54
        55</index></_>
    <_>
      <sv_count>14</sv_count>
      <rho>-3.3197423824717598e-001</rho>
      <alpha>
        2.9554233810719027e-001 6.0742560324853812e-001
        3.2400032411449436e-001 3.1321507018449005e-002
        5.4511844040954527e-001 6.0722449488585140e-001
        1.3658676857220864e-001 -6.5944065263501037e-002
        -1.2010141667521776e-001 -8.9522066745748874e-001
        -2.3590817932680117e-002 -9.8148262263789465e-001
        -1.8697697906178853e-001 -2.7390290732770656e-001</alpha>
      <index>
        26 27 28 29 30 31 32 37 39 43 44 45 48 56</index></_></decision_functions></opencv_ml_svm>
</opencv_storage>
